digraph Tree {
node [shape=box] ;
0 [label="X[12] <= 14.795\ngini = 0.58\nsamples = 354\nvalue = [155, 166, 33]"] ;
1 [label="X[5] <= 7.454\ngini = 0.485\nsamples = 232\nvalue = [41, 158, 33]"] ;
0 -> 1 [labeldistance=2.5, labelangle=45, headlabel="True"] ;
2 [label="X[5] <= 6.034\ngini = 0.418\nsamples = 215\nvalue = [41, 158, 16]"] ;
1 -> 2 ;
3 [label="X[7] <= 4.612\ngini = 0.515\nsamples = 63\nvalue = [30, 32, 1]"] ;
2 -> 3 ;
4 [label="X[6] <= 46.65\ngini = 0.481\nsamples = 41\nvalue = [14, 26, 1]"] ;
3 -> 4 ;
5 [label="gini = 0.0\nsamples = 9\nvalue = [0, 9, 0]"] ;
4 -> 5 ;
6 [label="X[10] <= 20.6\ngini = 0.525\nsamples = 32\nvalue = [14, 17, 1]"] ;
4 -> 6 ;
7 [label="X[0] <= 0.142\ngini = 0.503\nsamples = 28\nvalue = [10, 17, 1]"] ;
6 -> 7 ;
8 [label="X[0] <= 0.067\ngini = 0.198\nsamples = 9\nvalue = [1, 8, 0]"] ;
7 -> 8 ;
9 [label="gini = 0.0\nsamples = 1\nvalue = [1, 0, 0]"] ;
8 -> 9 ;
10 [label="gini = 0.0\nsamples = 8\nvalue = [0, 8, 0]"] ;
8 -> 10 ;
11 [label="X[7] <= 2.46\ngini = 0.548\nsamples = 19\nvalue = [9, 9, 1]"] ;
7 -> 11 ;
12 [label="X[11] <= 366.915\ngini = 0.521\nsamples = 13\nvalue = [4, 8, 1]"] ;
11 -> 12 ;
13 [label="X[5] <= 5.702\ngini = 0.594\nsamples = 8\nvalue = [4, 3, 1]"] ;
12 -> 13 ;
14 [label="X[4] <= 0.794\ngini = 0.375\nsamples = 4\nvalue = [1, 3, 0]"] ;
13 -> 14 ;
15 [label="gini = 0.0\nsamples = 3\nvalue = [0, 3, 0]"] ;
14 -> 15 ;
16 [label="gini = 0.0\nsamples = 1\nvalue = [1, 0, 0]"] ;
14 -> 16 ;
17 [label="X[7] <= 1.271\ngini = 0.375\nsamples = 4\nvalue = [3, 0, 1]"] ;
13 -> 17 ;
18 [label="gini = 0.0\nsamples = 1\nvalue = [0, 0, 1]"] ;
17 -> 18 ;
19 [label="gini = 0.0\nsamples = 3\nvalue = [3, 0, 0]"] ;
17 -> 19 ;
20 [label="gini = 0.0\nsamples = 5\nvalue = [0, 5, 0]"] ;
12 -> 20 ;
21 [label="X[12] <= 10.735\ngini = 0.278\nsamples = 6\nvalue = [5, 1, 0]"] ;
11 -> 21 ;
22 [label="gini = 0.0\nsamples = 1\nvalue = [0, 1, 0]"] ;
21 -> 22 ;
23 [label="gini = 0.0\nsamples = 5\nvalue = [5, 0, 0]"] ;
21 -> 23 ;
24 [label="gini = 0.0\nsamples = 4\nvalue = [4, 0, 0]"] ;
6 -> 24 ;
25 [label="X[6] <= 21.65\ngini = 0.397\nsamples = 22\nvalue = [16, 6, 0]"] ;
3 -> 25 ;
26 [label="gini = 0.0\nsamples = 3\nvalue = [0, 3, 0]"] ;
25 -> 26 ;
27 [label="X[2] <= 6.065\ngini = 0.266\nsamples = 19\nvalue = [16, 3, 0]"] ;
25 -> 27 ;
28 [label="gini = 0.0\nsamples = 13\nvalue = [13, 0, 0]"] ;
27 -> 28 ;
29 [label="X[6] <= 35.05\ngini = 0.5\nsamples = 6\nvalue = [3, 3, 0]"] ;
27 -> 29 ;
30 [label="gini = 0.0\nsamples = 2\nvalue = [0, 2, 0]"] ;
29 -> 30 ;
31 [label="X[2] <= 10.895\ngini = 0.375\nsamples = 4\nvalue = [3, 1, 0]"] ;
29 -> 31 ;
32 [label="gini = 0.0\nsamples = 3\nvalue = [3, 0, 0]"] ;
31 -> 32 ;
33 [label="gini = 0.0\nsamples = 1\nvalue = [0, 1, 0]"] ;
31 -> 33 ;
34 [label="X[7] <= 1.941\ngini = 0.298\nsamples = 152\nvalue = [11, 126, 15]"] ;
2 -> 34 ;
35 [label="X[11] <= 358.66\ngini = 0.408\nsamples = 7\nvalue = [0, 2, 5]"] ;
34 -> 35 ;
36 [label="gini = 0.0\nsamples = 2\nvalue = [0, 2, 0]"] ;
35 -> 36 ;
37 [label="gini = 0.0\nsamples = 5\nvalue = [0, 0, 5]"] ;
35 -> 37 ;
38 [label="X[10] <= 20.55\ngini = 0.258\nsamples = 145\nvalue = [11, 124, 10]"] ;
34 -> 38 ;
39 [label="X[9] <= 222.5\ngini = 0.197\nsamples = 130\nvalue = [4, 116, 10]"] ;
38 -> 39 ;
40 [label="X[5] <= 6.77\ngini = 0.5\nsamples = 12\nvalue = [0, 6, 6]"] ;
39 -> 40 ;
41 [label="X[5] <= 6.148\ngini = 0.32\nsamples = 5\nvalue = [0, 4, 1]"] ;
40 -> 41 ;
42 [label="gini = 0.0\nsamples = 1\nvalue = [0, 0, 1]"] ;
41 -> 42 ;
43 [label="gini = 0.0\nsamples = 4\nvalue = [0, 4, 0]"] ;
41 -> 43 ;
44 [label="X[0] <= 0.035\ngini = 0.408\nsamples = 7\nvalue = [0, 2, 5]"] ;
40 -> 44 ;
45 [label="gini = 0.0\nsamples = 1\nvalue = [0, 1, 0]"] ;
44 -> 45 ;
46 [label="X[5] <= 7.328\ngini = 0.278\nsamples = 6\nvalue = [0, 1, 5]"] ;
44 -> 46 ;
47 [label="gini = 0.0\nsamples = 5\nvalue = [0, 0, 5]"] ;
46 -> 47 ;
48 [label="gini = 0.0\nsamples = 1\nvalue = [0, 1, 0]"] ;
46 -> 48 ;
49 [label="X[12] <= 2.925\ngini = 0.129\nsamples = 118\nvalue = [4, 110, 4]"] ;
39 -> 49 ;
50 [label="gini = 0.0\nsamples = 1\nvalue = [0, 0, 1]"] ;
49 -> 50 ;
51 [label="X[9] <= 420.5\ngini = 0.114\nsamples = 117\nvalue = [4, 110, 3]"] ;
49 -> 51 ;
52 [label="X[2] <= 1.235\ngini = 0.058\nsamples = 101\nvalue = [0, 98, 3]"] ;
51 -> 52 ;
53 [label="X[11] <= 396.415\ngini = 0.5\nsamples = 2\nvalue = [0, 1, 1]"] ;
52 -> 53 ;
54 [label="gini = 0.0\nsamples = 1\nvalue = [0, 0, 1]"] ;
53 -> 54 ;
55 [label="gini = 0.0\nsamples = 1\nvalue = [0, 1, 0]"] ;
53 -> 55 ;
56 [label="X[12] <= 3.575\ngini = 0.04\nsamples = 99\nvalue = [0, 97, 2]"] ;
52 -> 56 ;
57 [label="X[12] <= 3.545\ngini = 0.375\nsamples = 4\nvalue = [0, 3, 1]"] ;
56 -> 57 ;
58 [label="gini = 0.0\nsamples = 3\nvalue = [0, 3, 0]"] ;
57 -> 58 ;
59 [label="gini = 0.0\nsamples = 1\nvalue = [0, 0, 1]"] ;
57 -> 59 ;
60 [label="X[9] <= 384.0\ngini = 0.021\nsamples = 95\nvalue = [0, 94, 1]"] ;
56 -> 60 ;
61 [label="gini = 0.0\nsamples = 82\nvalue = [0, 82, 0]"] ;
60 -> 61 ;
62 [label="X[6] <= 25.3\ngini = 0.142\nsamples = 13\nvalue = [0, 12, 1]"] ;
60 -> 62 ;
63 [label="X[10] <= 16.1\ngini = 0.444\nsamples = 3\nvalue = [0, 2, 1]"] ;
62 -> 63 ;
64 [label="gini = 0.0\nsamples = 1\nvalue = [0, 0, 1]"] ;
63 -> 64 ;
65 [label="gini = 0.0\nsamples = 2\nvalue = [0, 2, 0]"] ;
63 -> 65 ;
66 [label="gini = 0.0\nsamples = 10\nvalue = [0, 10, 0]"] ;
62 -> 66 ;
67 [label="X[0] <= 0.056\ngini = 0.375\nsamples = 16\nvalue = [4, 12, 0]"] ;
51 -> 67 ;
68 [label="gini = 0.0\nsamples = 1\nvalue = [1, 0, 0]"] ;
67 -> 68 ;
69 [label="X[6] <= 82.3\ngini = 0.32\nsamples = 15\nvalue = [3, 12, 0]"] ;
67 -> 69 ;
70 [label="gini = 0.0\nsamples = 7\nvalue = [0, 7, 0]"] ;
69 -> 70 ;
71 [label="X[4] <= 0.581\ngini = 0.469\nsamples = 8\nvalue = [3, 5, 0]"] ;
69 -> 71 ;
72 [label="gini = 0.0\nsamples = 2\nvalue = [2, 0, 0]"] ;
71 -> 72 ;
73 [label="X[6] <= 83.2\ngini = 0.278\nsamples = 6\nvalue = [1, 5, 0]"] ;
71 -> 73 ;
74 [label="gini = 0.0\nsamples = 1\nvalue = [1, 0, 0]"] ;
73 -> 74 ;
75 [label="gini = 0.0\nsamples = 5\nvalue = [0, 5, 0]"] ;
73 -> 75 ;
76 [label="X[0] <= 0.18\ngini = 0.498\nsamples = 15\nvalue = [7, 8, 0]"] ;
38 -> 76 ;
77 [label="gini = 0.0\nsamples = 6\nvalue = [0, 6, 0]"] ;
76 -> 77 ;
78 [label="X[5] <= 6.584\ngini = 0.346\nsamples = 9\nvalue = [7, 2, 0]"] ;
76 -> 78 ;
79 [label="X[9] <= 410.5\ngini = 0.219\nsamples = 8\nvalue = [7, 1, 0]"] ;
78 -> 79 ;
80 [label="gini = 0.0\nsamples = 5\nvalue = [5, 0, 0]"] ;
79 -> 80 ;
81 [label="X[7] <= 2.299\ngini = 0.444\nsamples = 3\nvalue = [2, 1, 0]"] ;
79 -> 81 ;
82 [label="gini = 0.0\nsamples = 2\nvalue = [2, 0, 0]"] ;
81 -> 82 ;
83 [label="gini = 0.0\nsamples = 1\nvalue = [0, 1, 0]"] ;
81 -> 83 ;
84 [label="gini = 0.0\nsamples = 1\nvalue = [0, 1, 0]"] ;
78 -> 84 ;
85 [label="gini = 0.0\nsamples = 17\nvalue = [0, 0, 17]"] ;
1 -> 85 ;
86 [label="X[3] <= 0.5\ngini = 0.123\nsamples = 122\nvalue = [114, 8, 0]"] ;
0 -> 86 [labeldistance=2.5, labelangle=-45, headlabel="False"] ;
87 [label="X[6] <= 38.2\ngini = 0.052\nsamples = 112\nvalue = [109, 3, 0]"] ;
86 -> 87 ;
88 [label="gini = 0.0\nsamples = 2\nvalue = [0, 2, 0]"] ;
87 -> 88 ;
89 [label="X[0] <= 0.132\ngini = 0.018\nsamples = 110\nvalue = [109, 1, 0]"] ;
87 -> 89 ;
90 [label="X[11] <= 364.37\ngini = 0.375\nsamples = 4\nvalue = [3, 1, 0]"] ;
89 -> 90 ;
91 [label="gini = 0.0\nsamples = 1\nvalue = [0, 1, 0]"] ;
90 -> 91 ;
92 [label="gini = 0.0\nsamples = 3\nvalue = [3, 0, 0]"] ;
90 -> 92 ;
93 [label="gini = 0.0\nsamples = 106\nvalue = [106, 0, 0]"] ;
89 -> 93 ;
94 [label="X[4] <= 0.66\ngini = 0.5\nsamples = 10\nvalue = [5, 5, 0]"] ;
86 -> 94 ;
95 [label="X[12] <= 23.535\ngini = 0.278\nsamples = 6\nvalue = [1, 5, 0]"] ;
94 -> 95 ;
96 [label="gini = 0.0\nsamples = 5\nvalue = [0, 5, 0]"] ;
95 -> 96 ;
97 [label="gini = 0.0\nsamples = 1\nvalue = [1, 0, 0]"] ;
95 -> 97 ;
98 [label="gini = 0.0\nsamples = 4\nvalue = [4, 0, 0]"] ;
94 -> 98 ;
}
